digraph Tree {
node [shape=box] ;
0 [label="X[14] <= 0.902\nentropy = 1.71\nsamples = 3819\nvalue = [1548, 1471, 225, 575]"] ;
1 [label="X[14] <= 0.9\nentropy = 0.01\nsamples = 1123\nvalue = [0, 1122, 0, 1]"] ;
0 -> 1 [labeldistance=2.5, labelangle=45, headlabel="True"] ;
2 [label="entropy = 0.0\nsamples = 1118\nvalue = [0, 1118, 0, 0]"] ;
1 -> 2 ;
3 [label="entropy = 0.722\nsamples = 5\nvalue = [0, 4, 0, 1]"] ;
1 -> 3 ;
4 [label="X[18] <= 0.505\nentropy = 1.616\nsamples = 2696\nvalue = [1548, 349, 225, 574]"] ;
0 -> 4 [labeldistance=2.5, labelangle=-45, headlabel="False"] ;
5 [label="entropy = 0.731\nsamples = 576\nvalue = [15, 76, 0, 485]"] ;
4 -> 5 ;
6 [label="entropy = 1.254\nsamples = 2120\nvalue = [1533, 273, 225, 89]"] ;
4 -> 6 ;
}