digraph Tree {
node [shape=box] ;
0 [label="X[15] <= 1.159\ngini = 0.659\nsamples = 2432\nvalue = [1526, 1512, 227, 554]"] ;
1 [label="X[18] <= 0.505\ngini = 0.607\nsamples = 1846\nvalue = [1137, 1384, 30, 367]"] ;
0 -> 1 [labeldistance=2.5, labelangle=45, headlabel="True"] ;
2 [label="X[10] <= 1.629\ngini = 0.497\nsamples = 366\nvalue = [0, 262, 0, 308]"] ;
1 -> 2 ;
3 [label="X[1] <= 1.008\ngini = 0.082\nsamples = 58\nvalue = [0, 89, 0, 4]"] ;
2 -> 3 ;
4 [label="gini = 0.0\nsamples = 2\nvalue = [0, 0, 0, 3]"] ;
3 -> 4 ;
5 [label="X[22] <= 1.254\ngini = 0.022\nsamples = 56\nvalue = [0, 89, 0, 1]"] ;
3 -> 5 ;
6 [label="gini = 0.0\nsamples = 1\nvalue = [0, 0, 0, 1]"] ;
5 -> 6 ;
7 [label="gini = 0.0\nsamples = 55\nvalue = [0, 89, 0, 0]"] ;
5 -> 7 ;
8 [label="X[12] <= 1.254\ngini = 0.462\nsamples = 308\nvalue = [0, 173, 0, 304]"] ;
2 -> 8 ;
9 [label="gini = 0.0\nsamples = 46\nvalue = [0, 68, 0, 0]"] ;
8 -> 9 ;
10 [label="X[22] <= 1.304\ngini = 0.382\nsamples = 262\nvalue = [0, 105, 0, 304]"] ;
8 -> 10 ;
11 [label="X[17] <= 0.876\ngini = 0.316\nsamples = 245\nvalue = [0, 74, 0, 303]"] ;
10 -> 11 ;
12 [label="X[14] <= 0.884\ngini = 0.297\nsamples = 241\nvalue = [0, 67, 0, 303]"] ;
11 -> 12 ;
13 [label="gini = 0.0\nsamples = 42\nvalue = [0, 67, 0, 0]"] ;
12 -> 13 ;
14 [label="gini = 0.0\nsamples = 199\nvalue = [0, 0, 0, 303]"] ;
12 -> 14 ;
15 [label="gini = 0.0\nsamples = 4\nvalue = [0, 7, 0, 0]"] ;
11 -> 15 ;
16 [label="X[23] <= 1.277\ngini = 0.061\nsamples = 17\nvalue = [0, 31, 0, 1]"] ;
10 -> 16 ;
17 [label="gini = 0.0\nsamples = 1\nvalue = [0, 0, 0, 1]"] ;
16 -> 17 ;
18 [label="gini = 0.0\nsamples = 16\nvalue = [0, 31, 0, 0]"] ;
16 -> 18 ;
19 [label="X[8] <= 1.77\ngini = 0.536\nsamples = 1480\nvalue = [1137, 1122, 30, 59]"] ;
1 -> 19 ;
20 [label="X[12] <= 0.955\ngini = 0.346\nsamples = 324\nvalue = [101, 418, 13, 0]"] ;
19 -> 20 ;
21 [label="X[4] <= 1.131\ngini = 0.032\nsamples = 184\nvalue = [3, 301, 2, 0]"] ;
20 -> 21 ;
22 [label="gini = 0.0\nsamples = 1\nvalue = [0, 0, 1, 0]"] ;
21 -> 22 ;
23 [label="X[2] <= 2.067\ngini = 0.026\nsamples = 183\nvalue = [3, 301, 1, 0]"] ;
21 -> 23 ;
24 [label="X[12] <= 0.896\ngini = 0.111\nsamples = 18\nvalue = [2, 32, 0, 0]"] ;
23 -> 24 ;
25 [label="gini = 0.0\nsamples = 17\nvalue = [0, 32, 0, 0]"] ;
24 -> 25 ;
26 [label="gini = 0.0\nsamples = 1\nvalue = [2, 0, 0, 0]"] ;
24 -> 26 ;
27 [label="X[18] <= 3.098\ngini = 0.015\nsamples = 165\nvalue = [1, 269, 1, 0]"] ;
23 -> 27 ;
28 [label="X[10] <= 4.985\ngini = 0.007\nsamples = 160\nvalue = [1, 265, 0, 0]"] ;
27 -> 28 ;
29 [label="gini = 0.0\nsamples = 142\nvalue = [0, 236, 0, 0]"] ;
28 -> 29 ;
30 [label="X[9] <= 2.664\ngini = 0.064\nsamples = 18\nvalue = [1, 29, 0, 0]"] ;
28 -> 30 ;
31 [label="gini = 0.0\nsamples = 16\nvalue = [0, 28, 0, 0]"] ;
30 -> 31 ;
32 [label="X[12] <= 0.901\ngini = 0.5\nsamples = 2\nvalue = [1, 1, 0, 0]"] ;
30 -> 32 ;
33 [label="gini = 0.0\nsamples = 1\nvalue = [0, 1, 0, 0]"] ;
32 -> 33 ;
34 [label="gini = 0.0\nsamples = 1\nvalue = [1, 0, 0, 0]"] ;
32 -> 34 ;
35 [label="X[9] <= 1.31\ngini = 0.32\nsamples = 5\nvalue = [0, 4, 1, 0]"] ;
27 -> 35 ;
36 [label="gini = 0.0\nsamples = 1\nvalue = [0, 0, 1, 0]"] ;
35 -> 36 ;
37 [label="gini = 0.0\nsamples = 4\nvalue = [0, 4, 0, 0]"] ;
35 -> 37 ;
38 [label="X[17] <= 0.791\ngini = 0.542\nsamples = 140\nvalue = [98, 117, 11, 0]"] ;
20 -> 38 ;
39 [label="X[21] <= 0.83\ngini = 0.398\nsamples = 63\nvalue = [69, 26, 0, 0]"] ;
38 -> 39 ;
40 [label="X[14] <= 1.27\ngini = 0.469\nsamples = 22\nvalue = [12, 20, 0, 0]"] ;
39 -> 40 ;
41 [label="gini = 0.0\nsamples = 16\nvalue = [0, 20, 0, 0]"] ;
40 -> 41 ;
42 [label="gini = 0.0\nsamples = 6\nvalue = [12, 0, 0, 0]"] ;
40 -> 42 ;
43 [label="X[14] <= 0.904\ngini = 0.172\nsamples = 41\nvalue = [57, 6, 0, 0]"] ;
39 -> 43 ;
44 [label="gini = 0.0\nsamples = 4\nvalue = [0, 5, 0, 0]"] ;
43 -> 44 ;
45 [label="X[3] <= 1.62\ngini = 0.034\nsamples = 37\nvalue = [57, 1, 0, 0]"] ;
43 -> 45 ;
46 [label="gini = 0.0\nsamples = 1\nvalue = [0, 1, 0, 0]"] ;
45 -> 46 ;
47 [label="gini = 0.0\nsamples = 36\nvalue = [57, 0, 0, 0]"] ;
45 -> 47 ;
48 [label="X[20] <= 1.643\ngini = 0.461\nsamples = 77\nvalue = [29, 91, 11, 0]"] ;
38 -> 48 ;
49 [label="X[9] <= 1.554\ngini = 0.249\nsamples = 58\nvalue = [14, 82, 0, 0]"] ;
48 -> 49 ;
50 [label="X[14] <= 1.236\ngini = 0.047\nsamples = 50\nvalue = [2, 81, 0, 0]"] ;
49 -> 50 ;
51 [label="gini = 0.0\nsamples = 49\nvalue = [0, 81, 0, 0]"] ;
50 -> 51 ;
52 [label="gini = 0.0\nsamples = 1\nvalue = [2, 0, 0, 0]"] ;
50 -> 52 ;
53 [label="X[2] <= 2.337\ngini = 0.142\nsamples = 8\nvalue = [12, 1, 0, 0]"] ;
49 -> 53 ;
54 [label="X[10] <= 1.64\ngini = 0.5\nsamples = 2\nvalue = [1, 1, 0, 0]"] ;
53 -> 54 ;
55 [label="gini = 0.0\nsamples = 1\nvalue = [0, 1, 0, 0]"] ;
54 -> 55 ;
56 [label="gini = 0.0\nsamples = 1\nvalue = [1, 0, 0, 0]"] ;
54 -> 56 ;
57 [label="gini = 0.0\nsamples = 6\nvalue = [11, 0, 0, 0]"] ;
53 -> 57 ;
58 [label="X[3] <= 1.271\ngini = 0.651\nsamples = 19\nvalue = [15, 9, 11, 0]"] ;
48 -> 58 ;
59 [label="gini = 0.0\nsamples = 4\nvalue = [0, 8, 0, 0]"] ;
58 -> 59 ;
60 [label="X[5] <= 1.65\ngini = 0.524\nsamples = 15\nvalue = [15, 1, 11, 0]"] ;
58 -> 60 ;
61 [label="X[13] <= 1.089\ngini = 0.395\nsamples = 11\nvalue = [15, 1, 4, 0]"] ;
60 -> 61 ;
62 [label="gini = 0.0\nsamples = 7\nvalue = [15, 0, 0, 0]"] ;
61 -> 62 ;
63 [label="X[11] <= 0.914\ngini = 0.32\nsamples = 4\nvalue = [0, 1, 4, 0]"] ;
61 -> 63 ;
64 [label="gini = 0.0\nsamples = 1\nvalue = [0, 1, 0, 0]"] ;
63 -> 64 ;
65 [label="gini = 0.0\nsamples = 3\nvalue = [0, 0, 4, 0]"] ;
63 -> 65 ;
66 [label="gini = 0.0\nsamples = 4\nvalue = [0, 0, 7, 0]"] ;
60 -> 66 ;
67 [label="X[13] <= 0.905\ngini = 0.523\nsamples = 1156\nvalue = [1036, 704, 17, 59]"] ;
19 -> 67 ;
68 [label="X[20] <= 1.035\ngini = 0.008\nsamples = 164\nvalue = [0, 260, 0, 1]"] ;
67 -> 68 ;
69 [label="gini = 0.0\nsamples = 146\nvalue = [0, 235, 0, 0]"] ;
68 -> 69 ;
70 [label="X[1] <= 4.879\ngini = 0.074\nsamples = 18\nvalue = [0, 25, 0, 1]"] ;
68 -> 70 ;
71 [label="gini = 0.0\nsamples = 16\nvalue = [0, 24, 0, 0]"] ;
70 -> 71 ;
72 [label="X[4] <= 3.197\ngini = 0.5\nsamples = 2\nvalue = [0, 1, 0, 1]"] ;
70 -> 72 ;
73 [label="gini = 0.0\nsamples = 1\nvalue = [0, 1, 0, 0]"] ;
72 -> 73 ;
74 [label="gini = 0.0\nsamples = 1\nvalue = [0, 0, 0, 1]"] ;
72 -> 74 ;
75 [label="X[16] <= 0.748\ngini = 0.473\nsamples = 992\nvalue = [1036, 444, 17, 58]"] ;
67 -> 75 ;
76 [label="X[12] <= 1.199\ngini = 0.369\nsamples = 608\nvalue = [746, 193, 0, 32]"] ;
75 -> 76 ;
77 [label="X[16] <= 0.648\ngini = 0.314\nsamples = 70\nvalue = [22, 91, 0, 0]"] ;
76 -> 77 ;
78 [label="X[4] <= 2.009\ngini = 0.149\nsamples = 59\nvalue = [8, 91, 0, 0]"] ;
77 -> 78 ;
79 [label="gini = 0.0\nsamples = 1\nvalue = [2, 0, 0, 0]"] ;
78 -> 79 ;
80 [label="X[19] <= 0.569\ngini = 0.116\nsamples = 58\nvalue = [6, 91, 0, 0]"] ;
78 -> 80 ;
81 [label="X[11] <= 0.895\ngini = 0.328\nsamples = 18\nvalue = [6, 23, 0, 0]"] ;
80 -> 81 ;
82 [label="gini = 0.0\nsamples = 12\nvalue = [0, 21, 0, 0]"] ;
81 -> 82 ;
83 [label="X[19] <= 0.562\ngini = 0.375\nsamples = 6\nvalue = [6, 2, 0, 0]"] ;
81 -> 83 ;
84 [label="gini = 0.0\nsamples = 3\nvalue = [5, 0, 0, 0]"] ;
83 -> 84 ;
85 [label="X[2] <= 1.992\ngini = 0.444\nsamples = 3\nvalue = [1, 2, 0, 0]"] ;
83 -> 85 ;
86 [label="gini = 0.0\nsamples = 2\nvalue = [0, 2, 0, 0]"] ;
85 -> 86 ;
87 [label="gini = 0.0\nsamples = 1\nvalue = [1, 0, 0, 0]"] ;
85 -> 87 ;
88 [label="gini = 0.0\nsamples = 40\nvalue = [0, 68, 0, 0]"] ;
80 -> 88 ;
89 [label="gini = 0.0\nsamples = 11\nvalue = [14, 0, 0, 0]"] ;
77 -> 89 ;
90 [label="X[10] <= 0.927\ngini = 0.272\nsamples = 538\nvalue = [724, 102, 0, 32]"] ;
76 -> 90 ;
91 [label="gini = 0.0\nsamples = 6\nvalue = [0, 10, 0, 0]"] ;
90 -> 91 ;
92 [label="X[15] <= 0.495\ngini = 0.258\nsamples = 532\nvalue = [724, 92, 0, 32]"] ;
90 -> 92 ;
93 [label="gini = 0.0\nsamples = 5\nvalue = [0, 0, 0, 10]"] ;
92 -> 93 ;
94 [label="X[3] <= 1.459\ngini = 0.241\nsamples = 527\nvalue = [724, 92, 0, 22]"] ;
92 -> 94 ;
95 [label="X[14] <= 0.901\ngini = 0.446\nsamples = 67\nvalue = [73, 37, 0, 0]"] ;
94 -> 95 ;
96 [label="gini = 0.0\nsamples = 22\nvalue = [0, 37, 0, 0]"] ;
95 -> 96 ;
97 [label="gini = 0.0\nsamples = 45\nvalue = [73, 0, 0, 0]"] ;
95 -> 97 ;
98 [label="X[18] <= 0.525\ngini = 0.194\nsamples = 460\nvalue = [651, 55, 0, 22]"] ;
94 -> 98 ;
99 [label="X[2] <= 1.527\ngini = 0.526\nsamples = 39\nvalue = [39, 23, 0, 4]"] ;
98 -> 99 ;
100 [label="X[23] <= 1.257\ngini = 0.482\nsamples = 9\nvalue = [3, 13, 0, 3]"] ;
99 -> 100 ;
101 [label="X[11] <= 3.344\ngini = 0.5\nsamples = 3\nvalue = [3, 0, 0, 3]"] ;
100 -> 101 ;
102 [label="gini = 0.0\nsamples = 1\nvalue = [3, 0, 0, 0]"] ;
101 -> 102 ;
103 [label="gini = 0.0\nsamples = 2\nvalue = [0, 0, 0, 3]"] ;
101 -> 103 ;
104 [label="gini = 0.0\nsamples = 6\nvalue = [0, 13, 0, 0]"] ;
100 -> 104 ;
105 [label="X[10] <= 1.86\ngini = 0.368\nsamples = 30\nvalue = [36, 10, 0, 1]"] ;
99 -> 105 ;
106 [label="X[9] <= 3.816\ngini = 0.499\nsamples = 12\nvalue = [9, 10, 0, 0]"] ;
105 -> 106 ;
107 [label="gini = 0.0\nsamples = 5\nvalue = [0, 8, 0, 0]"] ;
106 -> 107 ;
108 [label="X[13] <= 1.561\ngini = 0.298\nsamples = 7\nvalue = [9, 2, 0, 0]"] ;
106 -> 108 ;
109 [label="X[17] <= 0.498\ngini = 0.444\nsamples = 3\nvalue = [1, 2, 0, 0]"] ;
108 -> 109 ;
110 [label="gini = 0.0\nsamples = 1\nvalue = [1, 0, 0, 0]"] ;
109 -> 110 ;
111 [label="gini = 0.0\nsamples = 2\nvalue = [0, 2, 0, 0]"] ;
109 -> 111 ;
112 [label="gini = 0.0\nsamples = 4\nvalue = [8, 0, 0, 0]"] ;
108 -> 112 ;
113 [label="X[15] <= 1.045\ngini = 0.069\nsamples = 18\nvalue = [27, 0, 0, 1]"] ;
105 -> 113 ;
114 [label="gini = 0.0\nsamples = 16\nvalue = [25, 0, 0, 0]"] ;
113 -> 114 ;
115 [label="X[12] <= 3.209\ngini = 0.444\nsamples = 2\nvalue = [2, 0, 0, 1]"] ;
113 -> 115 ;
116 [label="gini = 0.0\nsamples = 1\nvalue = [2, 0, 0, 0]"] ;
115 -> 116 ;
117 [label="gini = 0.0\nsamples = 1\nvalue = [0, 0, 0, 1]"] ;
115 -> 117 ;
118 [label="X[9] <= 1.024\ngini = 0.142\nsamples = 421\nvalue = [612, 32, 0, 18]"] ;
98 -> 118 ;
119 [label="X[5] <= 4.084\ngini = 0.498\nsamples = 7\nvalue = [7, 8, 0, 0]"] ;
118 -> 119 ;
120 [label="gini = 0.0\nsamples = 2\nvalue = [0, 5, 0, 0]"] ;
119 -> 120 ;
121 [label="X[1] <= 1.307\ngini = 0.42\nsamples = 5\nvalue = [7, 3, 0, 0]"] ;
119 -> 121 ;
122 [label="gini = 0.0\nsamples = 2\nvalue = [4, 0, 0, 0]"] ;
121 -> 122 ;
123 [label="X[22] <= 1.269\ngini = 0.5\nsamples = 3\nvalue = [3, 3, 0, 0]"] ;
121 -> 123 ;
124 [label="gini = 0.0\nsamples = 2\nvalue = [0, 3, 0, 0]"] ;
123 -> 124 ;
125 [label="gini = 0.0\nsamples = 1\nvalue = [3, 0, 0, 0]"] ;
123 -> 125 ;
126 [label="X[14] <= 0.901\ngini = 0.123\nsamples = 414\nvalue = [605, 24, 0, 18]"] ;
118 -> 126 ;
127 [label="gini = 0.0\nsamples = 18\nvalue = [0, 24, 0, 0]"] ;
126 -> 127 ;
128 [label="X[17] <= 0.666\ngini = 0.056\nsamples = 396\nvalue = [605, 0, 0, 18]"] ;
126 -> 128 ;
129 [label="gini = 0.0\nsamples = 238\nvalue = [374, 0, 0, 0]"] ;
128 -> 129 ;
130 [label="X[17] <= 0.718\ngini = 0.134\nsamples = 158\nvalue = [231, 0, 0, 18]"] ;
128 -> 130 ;
131 [label="X[1] <= 1.06\ngini = 0.248\nsamples = 83\nvalue = [106, 0, 0, 18]"] ;
130 -> 131 ;
132 [label="gini = 0.0\nsamples = 41\nvalue = [59, 0, 0, 0]"] ;
131 -> 132 ;
133 [label="X[19] <= 0.539\ngini = 0.4\nsamples = 42\nvalue = [47, 0, 0, 18]"] ;
131 -> 133 ;
134 [label="gini = 0.0\nsamples = 11\nvalue = [0, 0, 0, 18]"] ;
133 -> 134 ;
135 [label="gini = 0.0\nsamples = 31\nvalue = [47, 0, 0, 0]"] ;
133 -> 135 ;
136 [label="gini = 0.0\nsamples = 75\nvalue = [125, 0, 0, 0]"] ;
130 -> 136 ;
137 [label="X[19] <= 0.537\ngini = 0.566\nsamples = 384\nvalue = [290, 251, 17, 26]"] ;
75 -> 137 ;
138 [label="X[14] <= 0.924\ngini = 0.477\nsamples = 51\nvalue = [1, 44, 0, 25]"] ;
137 -> 138 ;
139 [label="gini = 0.0\nsamples = 32\nvalue = [0, 44, 0, 0]"] ;
138 -> 139 ;
140 [label="X[21] <= 2.975\ngini = 0.074\nsamples = 19\nvalue = [1, 0, 0, 25]"] ;
138 -> 140 ;
141 [label="gini = 0.0\nsamples = 18\nvalue = [0, 0, 0, 25]"] ;
140 -> 141 ;
142 [label="gini = 0.0\nsamples = 1\nvalue = [1, 0, 0, 0]"] ;
140 -> 142 ;
143 [label="X[14] <= 0.9\ngini = 0.521\nsamples = 333\nvalue = [289, 207, 17, 1]"] ;
137 -> 143 ;
144 [label="gini = 0.0\nsamples = 130\nvalue = [0, 207, 0, 0]"] ;
143 -> 144 ;
145 [label="X[8] <= 2.447\ngini = 0.111\nsamples = 203\nvalue = [289, 0, 17, 1]"] ;
143 -> 145 ;
146 [label="X[13] <= 3.251\ngini = 0.408\nsamples = 7\nvalue = [4, 0, 10, 0]"] ;
145 -> 146 ;
147 [label="gini = 0.0\nsamples = 2\nvalue = [4, 0, 0, 0]"] ;
146 -> 147 ;
148 [label="gini = 0.0\nsamples = 5\nvalue = [0, 0, 10, 0]"] ;
146 -> 148 ;
149 [label="X[3] <= 1.255\ngini = 0.053\nsamples = 196\nvalue = [285, 0, 7, 1]"] ;
145 -> 149 ;
150 [label="gini = 0.0\nsamples = 1\nvalue = [0, 0, 1, 0]"] ;
149 -> 150 ;
151 [label="X[12] <= 0.979\ngini = 0.047\nsamples = 195\nvalue = [285, 0, 6, 1]"] ;
149 -> 151 ;
152 [label="X[4] <= 4.509\ngini = 0.48\nsamples = 6\nvalue = [6, 0, 4, 0]"] ;
151 -> 152 ;
153 [label="gini = 0.0\nsamples = 4\nvalue = [6, 0, 0, 0]"] ;
152 -> 153 ;
154 [label="gini = 0.0\nsamples = 2\nvalue = [0, 0, 4, 0]"] ;
152 -> 154 ;
155 [label="X[20] <= 0.951\ngini = 0.021\nsamples = 189\nvalue = [279, 0, 2, 1]"] ;
151 -> 155 ;
156 [label="X[20] <= 0.86\ngini = 0.007\nsamples = 183\nvalue = [272, 0, 0, 1]"] ;
155 -> 156 ;
157 [label="gini = 0.0\nsamples = 174\nvalue = [258, 0, 0, 0]"] ;
156 -> 157 ;
158 [label="X[15] <= 0.775\ngini = 0.124\nsamples = 9\nvalue = [14, 0, 0, 1]"] ;
156 -> 158 ;
159 [label="gini = 0.0\nsamples = 1\nvalue = [0, 0, 0, 1]"] ;
158 -> 159 ;
160 [label="gini = 0.0\nsamples = 8\nvalue = [14, 0, 0, 0]"] ;
158 -> 160 ;
161 [label="X[16] <= 0.944\ngini = 0.346\nsamples = 6\nvalue = [7, 0, 2, 0]"] ;
155 -> 161 ;
162 [label="gini = 0.0\nsamples = 4\nvalue = [7, 0, 0, 0]"] ;
161 -> 162 ;
163 [label="gini = 0.0\nsamples = 2\nvalue = [0, 0, 2, 0]"] ;
161 -> 163 ;
164 [label="X[17] <= 0.509\ngini = 0.703\nsamples = 586\nvalue = [389, 128, 197, 187]"] ;
0 -> 164 [labeldistance=2.5, labelangle=-45, headlabel="False"] ;
165 [label="X[15] <= 1.799\ngini = 0.425\nsamples = 130\nvalue = [13, 43, 0, 148]"] ;
164 -> 165 ;
166 [label="X[12] <= 1.125\ngini = 0.15\nsamples = 61\nvalue = [0, 8, 0, 90]"] ;
165 -> 166 ;
167 [label="gini = 0.0\nsamples = 1\nvalue = [0, 3, 0, 0]"] ;
166 -> 167 ;
168 [label="X[19] <= 0.499\ngini = 0.1\nsamples = 60\nvalue = [0, 5, 0, 90]"] ;
166 -> 168 ;
169 [label="X[4] <= 1.975\ngini = 0.022\nsamples = 56\nvalue = [0, 1, 0, 89]"] ;
168 -> 169 ;
170 [label="gini = 0.0\nsamples = 1\nvalue = [0, 1, 0, 0]"] ;
169 -> 170 ;
171 [label="gini = 0.0\nsamples = 55\nvalue = [0, 0, 0, 89]"] ;
169 -> 171 ;
172 [label="X[0] <= 1.248\ngini = 0.32\nsamples = 4\nvalue = [0, 4, 0, 1]"] ;
168 -> 172 ;
173 [label="gini = 0.0\nsamples = 1\nvalue = [0, 0, 0, 1]"] ;
172 -> 173 ;
174 [label="gini = 0.0\nsamples = 3\nvalue = [0, 4, 0, 0]"] ;
172 -> 174 ;
175 [label="X[9] <= 2.62\ngini = 0.577\nsamples = 69\nvalue = [13, 35, 0, 58]"] ;
165 -> 175 ;
176 [label="X[23] <= 1.079\ngini = 0.259\nsamples = 39\nvalue = [4, 5, 0, 53]"] ;
175 -> 176 ;
177 [label="gini = 0.0\nsamples = 2\nvalue = [0, 4, 0, 0]"] ;
176 -> 177 ;
178 [label="X[2] <= 1.48\ngini = 0.16\nsamples = 37\nvalue = [4, 1, 0, 53]"] ;
176 -> 178 ;
179 [label="X[23] <= 1.377\ngini = 0.444\nsamples = 2\nvalue = [2, 0, 0, 1]"] ;
178 -> 179 ;
180 [label="gini = 0.0\nsamples = 1\nvalue = [0, 0, 0, 1]"] ;
179 -> 180 ;
181 [label="gini = 0.0\nsamples = 1\nvalue = [2, 0, 0, 0]"] ;
179 -> 181 ;
182 [label="X[17] <= 0.497\ngini = 0.104\nsamples = 35\nvalue = [2, 1, 0, 52]"] ;
178 -> 182 ;
183 [label="X[15] <= 1.868\ngini = 0.037\nsamples = 33\nvalue = [0, 1, 0, 52]"] ;
182 -> 183 ;
184 [label="X[0] <= 1.138\ngini = 0.32\nsamples = 3\nvalue = [0, 1, 0, 4]"] ;
183 -> 184 ;
185 [label="gini = 0.0\nsamples = 1\nvalue = [0, 1, 0, 0]"] ;
184 -> 185 ;
186 [label="gini = 0.0\nsamples = 2\nvalue = [0, 0, 0, 4]"] ;
184 -> 186 ;
187 [label="gini = 0.0\nsamples = 30\nvalue = [0, 0, 0, 48]"] ;
183 -> 187 ;
188 [label="gini = 0.0\nsamples = 2\nvalue = [2, 0, 0, 0]"] ;
182 -> 188 ;
189 [label="X[14] <= 0.931\ngini = 0.48\nsamples = 30\nvalue = [9, 30, 0, 5]"] ;
175 -> 189 ;
190 [label="gini = 0.0\nsamples = 14\nvalue = [0, 21, 0, 0]"] ;
189 -> 190 ;
191 [label="X[22] <= 1.368\ngini = 0.647\nsamples = 16\nvalue = [9, 9, 0, 5]"] ;
189 -> 191 ;
192 [label="X[10] <= 1.777\ngini = 0.57\nsamples = 11\nvalue = [9, 2, 0, 5]"] ;
191 -> 192 ;
193 [label="gini = 0.0\nsamples = 2\nvalue = [0, 0, 0, 4]"] ;
192 -> 193 ;
194 [label="X[13] <= 1.061\ngini = 0.403\nsamples = 9\nvalue = [9, 2, 0, 1]"] ;
192 -> 194 ;
195 [label="gini = 0.0\nsamples = 2\nvalue = [0, 2, 0, 0]"] ;
194 -> 195 ;
196 [label="X[17] <= 0.495\ngini = 0.18\nsamples = 7\nvalue = [9, 0, 0, 1]"] ;
194 -> 196 ;
197 [label="gini = 0.0\nsamples = 1\nvalue = [0, 0, 0, 1]"] ;
196 -> 197 ;
198 [label="gini = 0.0\nsamples = 6\nvalue = [9, 0, 0, 0]"] ;
196 -> 198 ;
199 [label="gini = 0.0\nsamples = 5\nvalue = [0, 7, 0, 0]"] ;
191 -> 199 ;
200 [label="X[19] <= 0.907\ngini = 0.611\nsamples = 456\nvalue = [376, 85, 197, 39]"] ;
164 -> 200 ;
201 [label="X[7] <= 1.544\ngini = 0.346\nsamples = 276\nvalue = [327, 46, 0, 38]"] ;
200 -> 201 ;
202 [label="X[17] <= 1.165\ngini = 0.32\nsamples = 17\nvalue = [4, 16, 0, 0]"] ;
201 -> 202 ;
203 [label="gini = 0.0\nsamples = 13\nvalue = [0, 16, 0, 0]"] ;
202 -> 203 ;
204 [label="gini = 0.0\nsamples = 4\nvalue = [4, 0, 0, 0]"] ;
202 -> 204 ;
205 [label="X[20] <= 3.569\ngini = 0.302\nsamples = 259\nvalue = [323, 30, 0, 38]"] ;
201 -> 205 ;
206 [label="X[11] <= 0.935\ngini = 0.269\nsamples = 253\nvalue = [323, 20, 0, 38]"] ;
205 -> 206 ;
207 [label="gini = 0.0\nsamples = 8\nvalue = [0, 11, 0, 0]"] ;
206 -> 207 ;
208 [label="X[19] <= 0.494\ngini = 0.227\nsamples = 245\nvalue = [323, 9, 0, 38]"] ;
206 -> 208 ;
209 [label="X[4] <= 1.528\ngini = 0.191\nsamples = 20\nvalue = [0, 3, 0, 25]"] ;
208 -> 209 ;
210 [label="gini = 0.0\nsamples = 2\nvalue = [0, 3, 0, 0]"] ;
209 -> 210 ;
211 [label="gini = 0.0\nsamples = 18\nvalue = [0, 0, 0, 25]"] ;
209 -> 211 ;
212 [label="X[12] <= 0.887\ngini = 0.106\nsamples = 225\nvalue = [323, 6, 0, 13]"] ;
208 -> 212 ;
213 [label="gini = 0.0\nsamples = 1\nvalue = [0, 1, 0, 0]"] ;
212 -> 213 ;
214 [label="X[18] <= 0.489\ngini = 0.101\nsamples = 224\nvalue = [323, 5, 0, 13]"] ;
212 -> 214 ;
215 [label="gini = 0.0\nsamples = 12\nvalue = [0, 0, 0, 13]"] ;
214 -> 215 ;
216 [label="X[7] <= 4.507\ngini = 0.03\nsamples = 212\nvalue = [323, 5, 0, 0]"] ;
214 -> 216 ;
217 [label="X[17] <= 0.528\ngini = 0.019\nsamples = 208\nvalue = [317, 3, 0, 0]"] ;
216 -> 217 ;
218 [label="X[0] <= 0.968\ngini = 0.219\nsamples = 18\nvalue = [21, 3, 0, 0]"] ;
217 -> 218 ;
219 [label="gini = 0.0\nsamples = 2\nvalue = [0, 3, 0, 0]"] ;
218 -> 219 ;
220 [label="gini = 0.0\nsamples = 16\nvalue = [21, 0, 0, 0]"] ;
218 -> 220 ;
221 [label="gini = 0.0\nsamples = 190\nvalue = [296, 0, 0, 0]"] ;
217 -> 221 ;
222 [label="X[4] <= 3.898\ngini = 0.375\nsamples = 4\nvalue = [6, 2, 0, 0]"] ;
216 -> 222 ;
223 [label="gini = 0.0\nsamples = 3\nvalue = [6, 0, 0, 0]"] ;
222 -> 223 ;
224 [label="gini = 0.0\nsamples = 1\nvalue = [0, 2, 0, 0]"] ;
222 -> 224 ;
225 [label="gini = 0.0\nsamples = 6\nvalue = [0, 10, 0, 0]"] ;
205 -> 225 ;
226 [label="X[5] <= 2.311\ngini = 0.478\nsamples = 180\nvalue = [49, 39, 197, 1]"] ;
200 -> 226 ;
227 [label="X[18] <= 0.972\ngini = 0.254\nsamples = 145\nvalue = [24, 8, 197, 1]"] ;
226 -> 227 ;
228 [label="X[11] <= 0.887\ngini = 0.145\nsamples = 16\nvalue = [24, 1, 0, 1]"] ;
227 -> 228 ;
229 [label="gini = 0.0\nsamples = 1\nvalue = [0, 1, 0, 0]"] ;
228 -> 229 ;
230 [label="X[6] <= 3.41\ngini = 0.077\nsamples = 15\nvalue = [24, 0, 0, 1]"] ;
228 -> 230 ;
231 [label="gini = 0.0\nsamples = 13\nvalue = [21, 0, 0, 0]"] ;
230 -> 231 ;
232 [label="X[12] <= 2.517\ngini = 0.375\nsamples = 2\nvalue = [3, 0, 0, 1]"] ;
230 -> 232 ;
233 [label="gini = 0.0\nsamples = 1\nvalue = [0, 0, 0, 1]"] ;
232 -> 233 ;
234 [label="gini = 0.0\nsamples = 1\nvalue = [3, 0, 0, 0]"] ;
232 -> 234 ;
235 [label="X[13] <= 0.991\ngini = 0.066\nsamples = 129\nvalue = [0, 7, 197, 0]"] ;
227 -> 235 ;
236 [label="X[11] <= 0.878\ngini = 0.245\nsamples = 3\nvalue = [0, 6, 1, 0]"] ;
235 -> 236 ;
237 [label="gini = 0.0\nsamples = 2\nvalue = [0, 6, 0, 0]"] ;
236 -> 237 ;
238 [label="gini = 0.0\nsamples = 1\nvalue = [0, 0, 1, 0]"] ;
236 -> 238 ;
239 [label="X[9] <= 1.042\ngini = 0.01\nsamples = 126\nvalue = [0, 1, 196, 0]"] ;
235 -> 239 ;
240 [label="gini = 0.0\nsamples = 1\nvalue = [0, 1, 0, 0]"] ;
239 -> 240 ;
241 [label="gini = 0.0\nsamples = 125\nvalue = [0, 0, 196, 0]"] ;
239 -> 241 ;
242 [label="X[1] <= 1.25\ngini = 0.494\nsamples = 35\nvalue = [25, 31, 0, 0]"] ;
226 -> 242 ;
243 [label="X[14] <= 1.011\ngini = 0.117\nsamples = 13\nvalue = [15, 1, 0, 0]"] ;
242 -> 243 ;
244 [label="gini = 0.0\nsamples = 1\nvalue = [0, 1, 0, 0]"] ;
243 -> 244 ;
245 [label="gini = 0.0\nsamples = 12\nvalue = [15, 0, 0, 0]"] ;
243 -> 245 ;
246 [label="X[18] <= 0.583\ngini = 0.375\nsamples = 22\nvalue = [10, 30, 0, 0]"] ;
242 -> 246 ;
247 [label="gini = 0.0\nsamples = 3\nvalue = [5, 0, 0, 0]"] ;
246 -> 247 ;
248 [label="X[2] <= 1.265\ngini = 0.245\nsamples = 19\nvalue = [5, 30, 0, 0]"] ;
246 -> 248 ;
249 [label="gini = 0.0\nsamples = 2\nvalue = [5, 0, 0, 0]"] ;
248 -> 249 ;
250 [label="gini = 0.0\nsamples = 17\nvalue = [0, 30, 0, 0]"] ;
248 -> 250 ;
}