digraph Tree {
node [shape=box] ;
0 [label="X[14] <= 0.903\ngini = 0.659\nsamples = 2419\nvalue = [1582, 1453, 234, 550]"] ;
1 [label="X[11] <= 2.766\ngini = 0.002\nsamples = 722\nvalue = [1, 1115, 0, 0]"] ;
0 -> 1 [labeldistance=2.5, labelangle=45, headlabel="True"] ;
2 [label="gini = 0.0\nsamples = 557\nvalue = [0, 863, 0, 0]"] ;
1 -> 2 ;
3 [label="X[15] <= 0.741\ngini = 0.008\nsamples = 165\nvalue = [1, 252, 0, 0]"] ;
1 -> 3 ;
4 [label="X[11] <= 3.329\ngini = 0.111\nsamples = 11\nvalue = [1, 16, 0, 0]"] ;
3 -> 4 ;
5 [label="gini = 0.0\nsamples = 1\nvalue = [1, 0, 0, 0]"] ;
4 -> 5 ;
6 [label="gini = 0.0\nsamples = 10\nvalue = [0, 16, 0, 0]"] ;
4 -> 6 ;
7 [label="gini = 0.0\nsamples = 154\nvalue = [0, 236, 0, 0]"] ;
3 -> 7 ;
8 [label="X[0] <= 1.265\ngini = 0.593\nsamples = 1697\nvalue = [1581, 338, 234, 550]"] ;
0 -> 8 [labeldistance=2.5, labelangle=-45, headlabel="False"] ;
9 [label="X[17] <= 0.497\ngini = 0.351\nsamples = 762\nvalue = [950, 31, 2, 231]"] ;
8 -> 9 ;
10 [label="X[13] <= 1.046\ngini = 0.015\nsamples = 88\nvalue = [0, 1, 0, 129]"] ;
9 -> 10 ;
11 [label="gini = 0.0\nsamples = 1\nvalue = [0, 1, 0, 0]"] ;
10 -> 11 ;
12 [label="gini = 0.0\nsamples = 87\nvalue = [0, 0, 0, 129]"] ;
10 -> 12 ;
13 [label="X[18] <= 0.499\ngini = 0.222\nsamples = 674\nvalue = [950, 30, 2, 102]"] ;
9 -> 13 ;
14 [label="X[23] <= 0.616\ngini = 0.259\nsamples = 36\nvalue = [0, 9, 0, 50]"] ;
13 -> 14 ;
15 [label="gini = 0.0\nsamples = 4\nvalue = [0, 8, 0, 0]"] ;
14 -> 15 ;
16 [label="X[16] <= 0.759\ngini = 0.038\nsamples = 32\nvalue = [0, 1, 0, 50]"] ;
14 -> 16 ;
17 [label="gini = 0.0\nsamples = 30\nvalue = [0, 0, 0, 49]"] ;
16 -> 17 ;
18 [label="X[3] <= 3.859\ngini = 0.5\nsamples = 2\nvalue = [0, 1, 0, 1]"] ;
16 -> 18 ;
19 [label="gini = 0.0\nsamples = 1\nvalue = [0, 1, 0, 0]"] ;
18 -> 19 ;
20 [label="gini = 0.0\nsamples = 1\nvalue = [0, 0, 0, 1]"] ;
18 -> 20 ;
21 [label="X[21] <= 0.429\ngini = 0.138\nsamples = 638\nvalue = [950, 21, 2, 52]"] ;
13 -> 21 ;
22 [label="X[2] <= 1.558\ngini = 0.49\nsamples = 27\nvalue = [18, 0, 0, 24]"] ;
21 -> 22 ;
23 [label="X[20] <= 0.436\ngini = 0.397\nsamples = 21\nvalue = [9, 0, 0, 24]"] ;
22 -> 23 ;
24 [label="X[1] <= 0.438\ngini = 0.08\nsamples = 14\nvalue = [1, 0, 0, 23]"] ;
23 -> 24 ;
25 [label="gini = 0.0\nsamples = 1\nvalue = [1, 0, 0, 0]"] ;
24 -> 25 ;
26 [label="gini = 0.0\nsamples = 13\nvalue = [0, 0, 0, 23]"] ;
24 -> 26 ;
27 [label="X[5] <= 1.455\ngini = 0.198\nsamples = 7\nvalue = [8, 0, 0, 1]"] ;
23 -> 27 ;
28 [label="gini = 0.0\nsamples = 6\nvalue = [8, 0, 0, 0]"] ;
27 -> 28 ;
29 [label="gini = 0.0\nsamples = 1\nvalue = [0, 0, 0, 1]"] ;
27 -> 29 ;
30 [label="gini = 0.0\nsamples = 6\nvalue = [9, 0, 0, 0]"] ;
22 -> 30 ;
31 [label="X[11] <= 0.916\ngini = 0.1\nsamples = 611\nvalue = [932, 21, 2, 28]"] ;
21 -> 31 ;
32 [label="X[5] <= 2.824\ngini = 0.375\nsamples = 18\nvalue = [6, 18, 0, 0]"] ;
31 -> 32 ;
33 [label="X[0] <= 1.228\ngini = 0.375\nsamples = 7\nvalue = [6, 2, 0, 0]"] ;
32 -> 33 ;
34 [label="gini = 0.0\nsamples = 5\nvalue = [6, 0, 0, 0]"] ;
33 -> 34 ;
35 [label="gini = 0.0\nsamples = 2\nvalue = [0, 2, 0, 0]"] ;
33 -> 35 ;
36 [label="gini = 0.0\nsamples = 11\nvalue = [0, 16, 0, 0]"] ;
32 -> 36 ;
37 [label="X[22] <= 0.421\ngini = 0.067\nsamples = 593\nvalue = [926, 3, 2, 28]"] ;
31 -> 37 ;
38 [label="gini = 0.0\nsamples = 1\nvalue = [0, 0, 0, 1]"] ;
37 -> 38 ;
39 [label="X[2] <= 1.825\ngini = 0.065\nsamples = 592\nvalue = [926, 3, 2, 27]"] ;
37 -> 39 ;
40 [label="X[14] <= 0.919\ngini = 0.014\nsamples = 347\nvalue = [568, 2, 0, 2]"] ;
39 -> 40 ;
41 [label="X[16] <= 0.926\ngini = 0.245\nsamples = 9\nvalue = [12, 2, 0, 0]"] ;
40 -> 41 ;
42 [label="gini = 0.0\nsamples = 7\nvalue = [12, 0, 0, 0]"] ;
41 -> 42 ;
43 [label="gini = 0.0\nsamples = 2\nvalue = [0, 2, 0, 0]"] ;
41 -> 43 ;
44 [label="X[18] <= 0.503\ngini = 0.007\nsamples = 338\nvalue = [556, 0, 0, 2]"] ;
40 -> 44 ;
45 [label="X[13] <= 1.482\ngini = 0.444\nsamples = 2\nvalue = [2, 0, 0, 1]"] ;
44 -> 45 ;
46 [label="gini = 0.0\nsamples = 1\nvalue = [0, 0, 0, 1]"] ;
45 -> 46 ;
47 [label="gini = 0.0\nsamples = 1\nvalue = [2, 0, 0, 0]"] ;
45 -> 47 ;
48 [label="X[6] <= 1.456\ngini = 0.004\nsamples = 336\nvalue = [554, 0, 0, 1]"] ;
44 -> 48 ;
49 [label="X[23] <= 0.51\ngini = 0.245\nsamples = 6\nvalue = [6, 0, 0, 1]"] ;
48 -> 49 ;
50 [label="gini = 0.0\nsamples = 4\nvalue = [5, 0, 0, 0]"] ;
49 -> 50 ;
51 [label="X[5] <= 1.415\ngini = 0.5\nsamples = 2\nvalue = [1, 0, 0, 1]"] ;
49 -> 51 ;
52 [label="gini = 0.0\nsamples = 1\nvalue = [1, 0, 0, 0]"] ;
51 -> 52 ;
53 [label="gini = 0.0\nsamples = 1\nvalue = [0, 0, 0, 1]"] ;
51 -> 53 ;
54 [label="gini = 0.0\nsamples = 330\nvalue = [548, 0, 0, 0]"] ;
48 -> 54 ;
55 [label="X[11] <= 2.646\ngini = 0.136\nsamples = 245\nvalue = [358, 1, 2, 25]"] ;
39 -> 55 ;
56 [label="X[3] <= 1.251\ngini = 0.043\nsamples = 202\nvalue = [315, 1, 2, 4]"] ;
55 -> 56 ;
57 [label="gini = 0.0\nsamples = 1\nvalue = [0, 0, 2, 0]"] ;
56 -> 57 ;
58 [label="X[6] <= 4.922\ngini = 0.031\nsamples = 201\nvalue = [315, 1, 0, 4]"] ;
56 -> 58 ;
59 [label="gini = 0.0\nsamples = 116\nvalue = [186, 0, 0, 0]"] ;
58 -> 59 ;
60 [label="X[12] <= 2.605\ngini = 0.072\nsamples = 85\nvalue = [129, 1, 0, 4]"] ;
58 -> 60 ;
61 [label="X[2] <= 1.848\ngini = 0.041\nsamples = 63\nvalue = [93, 1, 0, 1]"] ;
60 -> 61 ;
62 [label="gini = 0.0\nsamples = 1\nvalue = [0, 0, 0, 1]"] ;
61 -> 62 ;
63 [label="X[13] <= 0.866\ngini = 0.021\nsamples = 62\nvalue = [93, 1, 0, 0]"] ;
61 -> 63 ;
64 [label="gini = 0.0\nsamples = 1\nvalue = [0, 1, 0, 0]"] ;
63 -> 64 ;
65 [label="gini = 0.0\nsamples = 61\nvalue = [93, 0, 0, 0]"] ;
63 -> 65 ;
66 [label="X[19] <= 0.517\ngini = 0.142\nsamples = 22\nvalue = [36, 0, 0, 3]"] ;
60 -> 66 ;
67 [label="gini = 0.0\nsamples = 2\nvalue = [0, 0, 0, 3]"] ;
66 -> 67 ;
68 [label="gini = 0.0\nsamples = 20\nvalue = [36, 0, 0, 0]"] ;
66 -> 68 ;
69 [label="X[19] <= 0.505\ngini = 0.441\nsamples = 43\nvalue = [43, 0, 0, 21]"] ;
55 -> 69 ;
70 [label="gini = 0.0\nsamples = 14\nvalue = [0, 0, 0, 21]"] ;
69 -> 70 ;
71 [label="gini = 0.0\nsamples = 29\nvalue = [43, 0, 0, 0]"] ;
69 -> 71 ;
72 [label="X[18] <= 0.501\ngini = 0.708\nsamples = 935\nvalue = [631, 307, 232, 319]"] ;
8 -> 72 ;
73 [label="X[8] <= 4.774\ngini = 0.366\nsamples = 219\nvalue = [3, 82, 0, 273]"] ;
72 -> 73 ;
74 [label="X[14] <= 1.1\ngini = 0.108\nsamples = 155\nvalue = [3, 11, 0, 233]"] ;
73 -> 74 ;
75 [label="X[8] <= 3.548\ngini = 0.498\nsamples = 10\nvalue = [0, 7, 0, 8]"] ;
74 -> 75 ;
76 [label="gini = 0.0\nsamples = 4\nvalue = [0, 7, 0, 0]"] ;
75 -> 76 ;
77 [label="gini = 0.0\nsamples = 6\nvalue = [0, 0, 0, 8]"] ;
75 -> 77 ;
78 [label="X[15] <= 0.498\ngini = 0.059\nsamples = 145\nvalue = [3, 4, 0, 225]"] ;
74 -> 78 ;
79 [label="gini = 0.0\nsamples = 2\nvalue = [0, 2, 0, 0]"] ;
78 -> 79 ;
80 [label="X[11] <= 1.199\ngini = 0.043\nsamples = 143\nvalue = [3, 2, 0, 225]"] ;
78 -> 80 ;
81 [label="gini = 0.0\nsamples = 1\nvalue = [0, 2, 0, 0]"] ;
80 -> 81 ;
82 [label="X[18] <= 0.5\ngini = 0.026\nsamples = 142\nvalue = [3, 0, 0, 225]"] ;
80 -> 82 ;
83 [label="X[13] <= 1.384\ngini = 0.009\nsamples = 140\nvalue = [1, 0, 0, 222]"] ;
82 -> 83 ;
84 [label="X[19] <= 0.491\ngini = 0.117\nsamples = 7\nvalue = [1, 0, 0, 15]"] ;
83 -> 84 ;
85 [label="gini = 0.0\nsamples = 6\nvalue = [0, 0, 0, 15]"] ;
84 -> 85 ;
86 [label="gini = 0.0\nsamples = 1\nvalue = [1, 0, 0, 0]"] ;
84 -> 86 ;
87 [label="gini = 0.0\nsamples = 133\nvalue = [0, 0, 0, 207]"] ;
83 -> 87 ;
88 [label="X[0] <= 1.482\ngini = 0.48\nsamples = 2\nvalue = [2, 0, 0, 3]"] ;
82 -> 88 ;
89 [label="gini = 0.0\nsamples = 1\nvalue = [0, 0, 0, 3]"] ;
88 -> 89 ;
90 [label="gini = 0.0\nsamples = 1\nvalue = [2, 0, 0, 0]"] ;
88 -> 90 ;
91 [label="X[23] <= 1.312\ngini = 0.461\nsamples = 64\nvalue = [0, 71, 0, 40]"] ;
73 -> 91 ;
92 [label="gini = 0.0\nsamples = 14\nvalue = [0, 0, 0, 23]"] ;
91 -> 92 ;
93 [label="X[22] <= 1.354\ngini = 0.312\nsamples = 50\nvalue = [0, 71, 0, 17]"] ;
91 -> 93 ;
94 [label="X[11] <= 1.258\ngini = 0.444\nsamples = 13\nvalue = [0, 8, 0, 16]"] ;
93 -> 94 ;
95 [label="gini = 0.0\nsamples = 4\nvalue = [0, 7, 0, 0]"] ;
94 -> 95 ;
96 [label="X[23] <= 1.322\ngini = 0.111\nsamples = 9\nvalue = [0, 1, 0, 16]"] ;
94 -> 96 ;
97 [label="gini = 0.0\nsamples = 1\nvalue = [0, 1, 0, 0]"] ;
96 -> 97 ;
98 [label="gini = 0.0\nsamples = 8\nvalue = [0, 0, 0, 16]"] ;
96 -> 98 ;
99 [label="X[18] <= 0.499\ngini = 0.031\nsamples = 37\nvalue = [0, 63, 0, 1]"] ;
93 -> 99 ;
100 [label="gini = 0.0\nsamples = 36\nvalue = [0, 63, 0, 0]"] ;
99 -> 100 ;
101 [label="gini = 0.0\nsamples = 1\nvalue = [0, 0, 0, 1]"] ;
99 -> 101 ;
102 [label="X[11] <= 0.9\ngini = 0.608\nsamples = 716\nvalue = [628, 225, 232, 46]"] ;
72 -> 102 ;
103 [label="gini = 0.0\nsamples = 125\nvalue = [0, 183, 0, 0]"] ;
102 -> 103 ;
104 [label="X[0] <= 1.773\ngini = 0.497\nsamples = 591\nvalue = [628, 42, 232, 46]"] ;
102 -> 104 ;
105 [label="X[3] <= 1.558\ngini = 0.294\nsamples = 260\nvalue = [347, 8, 16, 46]"] ;
104 -> 105 ;
106 [label="gini = 0.0\nsamples = 3\nvalue = [0, 0, 0, 7]"] ;
105 -> 106 ;
107 [label="X[13] <= 1.447\ngini = 0.273\nsamples = 257\nvalue = [347, 8, 16, 39]"] ;
105 -> 107 ;
108 [label="X[16] <= 0.503\ngini = 0.076\nsamples = 156\nvalue = [246, 8, 0, 2]"] ;
107 -> 108 ;
109 [label="X[16] <= 0.496\ngini = 0.346\nsamples = 5\nvalue = [0, 7, 0, 2]"] ;
108 -> 109 ;
110 [label="gini = 0.0\nsamples = 3\nvalue = [0, 7, 0, 0]"] ;
109 -> 110 ;
111 [label="gini = 0.0\nsamples = 2\nvalue = [0, 0, 0, 2]"] ;
109 -> 111 ;
112 [label="X[4] <= 1.395\ngini = 0.008\nsamples = 151\nvalue = [246, 1, 0, 0]"] ;
108 -> 112 ;
113 [label="gini = 0.0\nsamples = 1\nvalue = [0, 1, 0, 0]"] ;
112 -> 113 ;
114 [label="gini = 0.0\nsamples = 150\nvalue = [246, 0, 0, 0]"] ;
112 -> 114 ;
115 [label="X[5] <= 1.808\ngini = 0.501\nsamples = 101\nvalue = [101, 0, 16, 37]"] ;
107 -> 115 ;
116 [label="gini = 0.0\nsamples = 20\nvalue = [32, 0, 0, 0]"] ;
115 -> 116 ;
117 [label="X[17] <= 0.499\ngini = 0.571\nsamples = 81\nvalue = [69, 0, 16, 37]"] ;
115 -> 117 ;
118 [label="gini = 0.0\nsamples = 17\nvalue = [0, 0, 0, 22]"] ;
117 -> 118 ;
119 [label="X[6] <= 2.028\ngini = 0.476\nsamples = 64\nvalue = [69, 0, 16, 15]"] ;
117 -> 119 ;
120 [label="X[6] <= 1.971\ngini = 0.656\nsamples = 23\nvalue = [11, 0, 15, 10]"] ;
119 -> 120 ;
121 [label="X[4] <= 1.942\ngini = 0.357\nsamples = 10\nvalue = [11, 0, 1, 2]"] ;
120 -> 121 ;
122 [label="gini = 0.0\nsamples = 4\nvalue = [7, 0, 0, 0]"] ;
121 -> 122 ;
123 [label="X[10] <= 2.149\ngini = 0.571\nsamples = 6\nvalue = [4, 0, 1, 2]"] ;
121 -> 123 ;
124 [label="X[20] <= 0.504\ngini = 0.32\nsamples = 4\nvalue = [4, 0, 0, 1]"] ;
123 -> 124 ;
125 [label="gini = 0.0\nsamples = 1\nvalue = [0, 0, 0, 1]"] ;
124 -> 125 ;
126 [label="gini = 0.0\nsamples = 3\nvalue = [4, 0, 0, 0]"] ;
124 -> 126 ;
127 [label="X[11] <= 2.112\ngini = 0.5\nsamples = 2\nvalue = [0, 0, 1, 1]"] ;
123 -> 127 ;
128 [label="gini = 0.0\nsamples = 1\nvalue = [0, 0, 1, 0]"] ;
127 -> 128 ;
129 [label="gini = 0.0\nsamples = 1\nvalue = [0, 0, 0, 1]"] ;
127 -> 129 ;
130 [label="X[17] <= 1.472\ngini = 0.463\nsamples = 13\nvalue = [0, 0, 14, 8]"] ;
120 -> 130 ;
131 [label="gini = 0.0\nsamples = 9\nvalue = [0, 0, 14, 0]"] ;
130 -> 131 ;
132 [label="gini = 0.0\nsamples = 4\nvalue = [0, 0, 0, 8]"] ;
130 -> 132 ;
133 [label="X[19] <= 0.501\ngini = 0.172\nsamples = 41\nvalue = [58, 0, 1, 5]"] ;
119 -> 133 ;
134 [label="gini = 0.0\nsamples = 4\nvalue = [0, 0, 0, 5]"] ;
133 -> 134 ;
135 [label="X[23] <= 1.728\ngini = 0.033\nsamples = 37\nvalue = [58, 0, 1, 0]"] ;
133 -> 135 ;
136 [label="gini = 0.0\nsamples = 32\nvalue = [53, 0, 0, 0]"] ;
135 -> 136 ;
137 [label="X[16] <= 1.511\ngini = 0.278\nsamples = 5\nvalue = [5, 0, 1, 0]"] ;
135 -> 137 ;
138 [label="gini = 0.0\nsamples = 4\nvalue = [5, 0, 0, 0]"] ;
137 -> 138 ;
139 [label="gini = 0.0\nsamples = 1\nvalue = [0, 0, 1, 0]"] ;
137 -> 139 ;
140 [label="X[16] <= 1.151\ngini = 0.55\nsamples = 331\nvalue = [281, 34, 216, 0]"] ;
104 -> 140 ;
141 [label="X[19] <= 0.692\ngini = 0.345\nsamples = 178\nvalue = [234, 34, 26, 0]"] ;
140 -> 141 ;
142 [label="X[1] <= 2.021\ngini = 0.451\nsamples = 53\nvalue = [61, 32, 0, 0]"] ;
141 -> 142 ;
143 [label="gini = 0.0\nsamples = 15\nvalue = [32, 0, 0, 0]"] ;
142 -> 143 ;
144 [label="X[13] <= 0.902\ngini = 0.499\nsamples = 38\nvalue = [29, 32, 0, 0]"] ;
142 -> 144 ;
145 [label="gini = 0.0\nsamples = 16\nvalue = [0, 32, 0, 0]"] ;
144 -> 145 ;
146 [label="gini = 0.0\nsamples = 22\nvalue = [29, 0, 0, 0]"] ;
144 -> 146 ;
147 [label="X[6] <= 1.287\ngini = 0.242\nsamples = 125\nvalue = [173, 2, 26, 0]"] ;
141 -> 147 ;
148 [label="X[12] <= 0.911\ngini = 0.198\nsamples = 5\nvalue = [0, 1, 8, 0]"] ;
147 -> 148 ;
149 [label="gini = 0.0\nsamples = 1\nvalue = [0, 1, 0, 0]"] ;
148 -> 149 ;
150 [label="gini = 0.0\nsamples = 4\nvalue = [0, 0, 8, 0]"] ;
148 -> 150 ;
151 [label="X[16] <= 1.023\ngini = 0.179\nsamples = 120\nvalue = [173, 1, 18, 0]"] ;
147 -> 151 ;
152 [label="X[15] <= 0.475\ngini = 0.014\nsamples = 85\nvalue = [137, 1, 0, 0]"] ;
151 -> 152 ;
153 [label="gini = 0.0\nsamples = 1\nvalue = [0, 1, 0, 0]"] ;
152 -> 153 ;
154 [label="gini = 0.0\nsamples = 84\nvalue = [137, 0, 0, 0]"] ;
152 -> 154 ;
155 [label="X[22] <= 4.261\ngini = 0.444\nsamples = 35\nvalue = [36, 0, 18, 0]"] ;
151 -> 155 ;
156 [label="X[15] <= 0.997\ngini = 0.357\nsamples = 28\nvalue = [33, 0, 10, 0]"] ;
155 -> 156 ;
157 [label="gini = 0.0\nsamples = 2\nvalue = [0, 0, 2, 0]"] ;
156 -> 157 ;
158 [label="X[2] <= 2.362\ngini = 0.314\nsamples = 26\nvalue = [33, 0, 8, 0]"] ;
156 -> 158 ;
159 [label="X[4] <= 1.913\ngini = 0.229\nsamples = 24\nvalue = [33, 0, 5, 0]"] ;
158 -> 159 ;
160 [label="gini = 0.0\nsamples = 12\nvalue = [23, 0, 0, 0]"] ;
159 -> 160 ;
161 [label="X[23] <= 2.335\ngini = 0.444\nsamples = 12\nvalue = [10, 0, 5, 0]"] ;
159 -> 161 ;
162 [label="gini = 0.0\nsamples = 6\nvalue = [9, 0, 0, 0]"] ;
161 -> 162 ;
163 [label="X[8] <= 1.324\ngini = 0.278\nsamples = 6\nvalue = [1, 0, 5, 0]"] ;
161 -> 163 ;
164 [label="gini = 0.0\nsamples = 1\nvalue = [1, 0, 0, 0]"] ;
163 -> 164 ;
165 [label="gini = 0.0\nsamples = 5\nvalue = [0, 0, 5, 0]"] ;
163 -> 165 ;
166 [label="gini = 0.0\nsamples = 2\nvalue = [0, 0, 3, 0]"] ;
158 -> 166 ;
167 [label="X[2] <= 2.347\ngini = 0.397\nsamples = 7\nvalue = [3, 0, 8, 0]"] ;
155 -> 167 ;
168 [label="gini = 0.0\nsamples = 2\nvalue = [3, 0, 0, 0]"] ;
167 -> 168 ;
169 [label="gini = 0.0\nsamples = 5\nvalue = [0, 0, 8, 0]"] ;
167 -> 169 ;
170 [label="X[5] <= 2.03\ngini = 0.318\nsamples = 153\nvalue = [47, 0, 190, 0]"] ;
140 -> 170 ;
171 [label="X[22] <= 1.789\ngini = 0.115\nsamples = 103\nvalue = [10, 0, 153, 0]"] ;
170 -> 171 ;
172 [label="X[15] <= 1.448\ngini = 0.408\nsamples = 4\nvalue = [2, 0, 5, 0]"] ;
171 -> 172 ;
173 [label="gini = 0.0\nsamples = 2\nvalue = [0, 0, 5, 0]"] ;
172 -> 173 ;
174 [label="gini = 0.0\nsamples = 2\nvalue = [2, 0, 0, 0]"] ;
172 -> 174 ;
175 [label="X[19] <= 0.911\ngini = 0.097\nsamples = 99\nvalue = [8, 0, 148, 0]"] ;
171 -> 175 ;
176 [label="gini = 0.0\nsamples = 4\nvalue = [5, 0, 0, 0]"] ;
175 -> 176 ;
177 [label="X[23] <= 4.248\ngini = 0.039\nsamples = 95\nvalue = [3, 0, 148, 0]"] ;
175 -> 177 ;
178 [label="gini = 0.0\nsamples = 89\nvalue = [0, 0, 141, 0]"] ;
177 -> 178 ;
179 [label="X[17] <= 2.067\ngini = 0.42\nsamples = 6\nvalue = [3, 0, 7, 0]"] ;
177 -> 179 ;
180 [label="gini = 0.0\nsamples = 3\nvalue = [0, 0, 5, 0]"] ;
179 -> 180 ;
181 [label="X[7] <= 1.352\ngini = 0.48\nsamples = 3\nvalue = [3, 0, 2, 0]"] ;
179 -> 181 ;
182 [label="gini = 0.0\nsamples = 2\nvalue = [0, 0, 2, 0]"] ;
181 -> 182 ;
183 [label="gini = 0.0\nsamples = 1\nvalue = [3, 0, 0, 0]"] ;
181 -> 183 ;
184 [label="X[8] <= 1.468\ngini = 0.5\nsamples = 50\nvalue = [37, 0, 37, 0]"] ;
170 -> 184 ;
185 [label="gini = 0.0\nsamples = 9\nvalue = [0, 0, 13, 0]"] ;
184 -> 185 ;
186 [label="X[16] <= 1.391\ngini = 0.477\nsamples = 41\nvalue = [37, 0, 24, 0]"] ;
184 -> 186 ;
187 [label="X[2] <= 2.073\ngini = 0.467\nsamples = 21\nvalue = [13, 0, 22, 0]"] ;
186 -> 187 ;
188 [label="X[8] <= 1.962\ngini = 0.444\nsamples = 9\nvalue = [12, 0, 6, 0]"] ;
187 -> 188 ;
189 [label="X[22] <= 1.952\ngini = 0.142\nsamples = 7\nvalue = [12, 0, 1, 0]"] ;
188 -> 189 ;
190 [label="gini = 0.0\nsamples = 1\nvalue = [0, 0, 1, 0]"] ;
189 -> 190 ;
191 [label="gini = 0.0\nsamples = 6\nvalue = [12, 0, 0, 0]"] ;
189 -> 191 ;
192 [label="gini = 0.0\nsamples = 2\nvalue = [0, 0, 5, 0]"] ;
188 -> 192 ;
193 [label="X[11] <= 1.473\ngini = 0.111\nsamples = 12\nvalue = [1, 0, 16, 0]"] ;
187 -> 193 ;
194 [label="gini = 0.0\nsamples = 1\nvalue = [1, 0, 0, 0]"] ;
193 -> 194 ;
195 [label="gini = 0.0\nsamples = 11\nvalue = [0, 0, 16, 0]"] ;
193 -> 195 ;
196 [label="X[10] <= 1.745\ngini = 0.142\nsamples = 20\nvalue = [24, 0, 2, 0]"] ;
186 -> 196 ;
197 [label="gini = 0.0\nsamples = 18\nvalue = [24, 0, 0, 0]"] ;
196 -> 197 ;
198 [label="gini = 0.0\nsamples = 2\nvalue = [0, 0, 2, 0]"] ;
196 -> 198 ;
}