digraph Tree {
node [shape=box] ;
0 [label="X[23] <= 1.751\ngini = 0.663\nsamples = 2427\nvalue = [1542, 1464, 229, 584]"] ;
1 [label="X[18] <= 0.505\ngini = 0.635\nsamples = 1916\nvalue = [1386, 1042, 22, 577]"] ;
0 -> 1 [labeldistance=2.5, labelangle=45, headlabel="True"] ;
2 [label="X[10] <= 1.651\ngini = 0.495\nsamples = 489\nvalue = [17, 297, 0, 477]"] ;
1 -> 2 ;
3 [label="X[4] <= 3.511\ngini = 0.319\nsamples = 100\nvalue = [0, 129, 0, 32]"] ;
2 -> 3 ;
4 [label="X[20] <= 0.476\ngini = 0.016\nsamples = 76\nvalue = [0, 125, 0, 1]"] ;
3 -> 4 ;
5 [label="X[13] <= 1.458\ngini = 0.278\nsamples = 4\nvalue = [0, 5, 0, 1]"] ;
4 -> 5 ;
6 [label="gini = 0.0\nsamples = 3\nvalue = [0, 5, 0, 0]"] ;
5 -> 6 ;
7 [label="gini = 0.0\nsamples = 1\nvalue = [0, 0, 0, 1]"] ;
5 -> 7 ;
8 [label="gini = 0.0\nsamples = 72\nvalue = [0, 120, 0, 0]"] ;
4 -> 8 ;
9 [label="X[10] <= 1.635\ngini = 0.202\nsamples = 24\nvalue = [0, 4, 0, 31]"] ;
3 -> 9 ;
10 [label="gini = 0.0\nsamples = 20\nvalue = [0, 0, 0, 29]"] ;
9 -> 10 ;
11 [label="X[5] <= 4.11\ngini = 0.444\nsamples = 4\nvalue = [0, 4, 0, 2]"] ;
9 -> 11 ;
12 [label="gini = 0.0\nsamples = 2\nvalue = [0, 4, 0, 0]"] ;
11 -> 12 ;
13 [label="gini = 0.0\nsamples = 2\nvalue = [0, 0, 0, 2]"] ;
11 -> 13 ;
14 [label="X[12] <= 1.213\ngini = 0.429\nsamples = 389\nvalue = [17, 168, 0, 445]"] ;
2 -> 14 ;
15 [label="gini = 0.0\nsamples = 43\nvalue = [0, 71, 0, 0]"] ;
14 -> 15 ;
16 [label="X[12] <= 3.933\ngini = 0.335\nsamples = 346\nvalue = [17, 97, 0, 445]"] ;
14 -> 16 ;
17 [label="X[14] <= 0.882\ngini = 0.301\nsamples = 335\nvalue = [17, 79, 0, 445]"] ;
16 -> 17 ;
18 [label="gini = 0.0\nsamples = 47\nvalue = [0, 78, 0, 0]"] ;
17 -> 18 ;
19 [label="X[20] <= 1.526\ngini = 0.075\nsamples = 288\nvalue = [17, 1, 0, 445]"] ;
17 -> 19 ;
20 [label="X[13] <= 1.412\ngini = 0.058\nsamples = 272\nvalue = [12, 1, 0, 422]"] ;
19 -> 20 ;
21 [label="X[19] <= 0.494\ngini = 0.479\nsamples = 22\nvalue = [10, 1, 0, 20]"] ;
20 -> 21 ;
22 [label="gini = 0.0\nsamples = 13\nvalue = [0, 0, 0, 18]"] ;
21 -> 22 ;
23 [label="X[15] <= 0.716\ngini = 0.379\nsamples = 9\nvalue = [10, 1, 0, 2]"] ;
21 -> 23 ;
24 [label="X[3] <= 2.767\ngini = 0.5\nsamples = 2\nvalue = [0, 1, 0, 1]"] ;
23 -> 24 ;
25 [label="gini = 0.0\nsamples = 1\nvalue = [0, 1, 0, 0]"] ;
24 -> 25 ;
26 [label="gini = 0.0\nsamples = 1\nvalue = [0, 0, 0, 1]"] ;
24 -> 26 ;
27 [label="X[4] <= 4.71\ngini = 0.165\nsamples = 7\nvalue = [10, 0, 0, 1]"] ;
23 -> 27 ;
28 [label="gini = 0.0\nsamples = 6\nvalue = [10, 0, 0, 0]"] ;
27 -> 28 ;
29 [label="gini = 0.0\nsamples = 1\nvalue = [0, 0, 0, 1]"] ;
27 -> 29 ;
30 [label="X[15] <= 1.706\ngini = 0.01\nsamples = 250\nvalue = [2, 0, 0, 402]"] ;
20 -> 30 ;
31 [label="gini = 0.0\nsamples = 205\nvalue = [0, 0, 0, 334]"] ;
30 -> 31 ;
32 [label="X[21] <= 0.841\ngini = 0.056\nsamples = 45\nvalue = [2, 0, 0, 68]"] ;
30 -> 32 ;
33 [label="X[2] <= 1.377\ngini = 0.198\nsamples = 13\nvalue = [2, 0, 0, 16]"] ;
32 -> 33 ;
34 [label="gini = 0.0\nsamples = 1\nvalue = [2, 0, 0, 0]"] ;
33 -> 34 ;
35 [label="gini = 0.0\nsamples = 12\nvalue = [0, 0, 0, 16]"] ;
33 -> 35 ;
36 [label="gini = 0.0\nsamples = 32\nvalue = [0, 0, 0, 52]"] ;
32 -> 36 ;
37 [label="X[3] <= 1.892\ngini = 0.293\nsamples = 16\nvalue = [5, 0, 0, 23]"] ;
19 -> 37 ;
38 [label="X[21] <= 1.587\ngini = 0.408\nsamples = 4\nvalue = [5, 0, 0, 2]"] ;
37 -> 38 ;
39 [label="gini = 0.0\nsamples = 3\nvalue = [5, 0, 0, 0]"] ;
38 -> 39 ;
40 [label="gini = 0.0\nsamples = 1\nvalue = [0, 0, 0, 2]"] ;
38 -> 40 ;
41 [label="gini = 0.0\nsamples = 12\nvalue = [0, 0, 0, 21]"] ;
37 -> 41 ;
42 [label="gini = 0.0\nsamples = 11\nvalue = [0, 18, 0, 0]"] ;
16 -> 42 ;
43 [label="X[4] <= 3.159\ngini = 0.512\nsamples = 1427\nvalue = [1369, 745, 22, 100]"] ;
1 -> 43 ;
44 [label="X[12] <= 0.912\ngini = 0.46\nsamples = 963\nvalue = [1056, 359, 15, 93]"] ;
43 -> 44 ;
45 [label="gini = 0.0\nsamples = 60\nvalue = [0, 95, 0, 0]"] ;
44 -> 45 ;
46 [label="X[14] <= 0.901\ngini = 0.415\nsamples = 903\nvalue = [1056, 264, 15, 93]"] ;
44 -> 46 ;
47 [label="gini = 0.0\nsamples = 169\nvalue = [0, 256, 0, 0]"] ;
46 -> 47 ;
48 [label="X[17] <= 0.498\ngini = 0.182\nsamples = 734\nvalue = [1056, 8, 15, 93]"] ;
46 -> 48 ;
49 [label="X[13] <= 1.809\ngini = 0.198\nsamples = 17\nvalue = [0, 3, 0, 24]"] ;
48 -> 49 ;
50 [label="gini = 0.0\nsamples = 2\nvalue = [0, 3, 0, 0]"] ;
49 -> 50 ;
51 [label="gini = 0.0\nsamples = 15\nvalue = [0, 0, 0, 24]"] ;
49 -> 51 ;
52 [label="X[0] <= 0.417\ngini = 0.146\nsamples = 717\nvalue = [1056, 5, 15, 69]"] ;
48 -> 52 ;
53 [label="gini = 0.0\nsamples = 8\nvalue = [0, 0, 0, 13]"] ;
52 -> 53 ;
54 [label="X[19] <= 0.494\ngini = 0.127\nsamples = 709\nvalue = [1056, 5, 15, 56]"] ;
52 -> 54 ;
55 [label="gini = 0.0\nsamples = 34\nvalue = [0, 0, 0, 56]"] ;
54 -> 55 ;
56 [label="X[11] <= 0.9\ngini = 0.037\nsamples = 675\nvalue = [1056, 5, 15, 0]"] ;
54 -> 56 ;
57 [label="gini = 0.0\nsamples = 1\nvalue = [0, 1, 0, 0]"] ;
56 -> 57 ;
58 [label="X[13] <= 0.911\ngini = 0.035\nsamples = 674\nvalue = [1056, 4, 15, 0]"] ;
56 -> 58 ;
59 [label="gini = 0.0\nsamples = 2\nvalue = [0, 4, 0, 0]"] ;
58 -> 59 ;
60 [label="X[22] <= 1.603\ngini = 0.028\nsamples = 672\nvalue = [1056, 0, 15, 0]"] ;
58 -> 60 ;
61 [label="gini = 0.0\nsamples = 600\nvalue = [962, 0, 0, 0]"] ;
60 -> 61 ;
62 [label="X[20] <= 0.509\ngini = 0.237\nsamples = 72\nvalue = [94, 0, 15, 0]"] ;
60 -> 62 ;
63 [label="gini = 0.0\nsamples = 4\nvalue = [0, 0, 7, 0]"] ;
62 -> 63 ;
64 [label="X[13] <= 1.984\ngini = 0.145\nsamples = 68\nvalue = [94, 0, 8, 0]"] ;
62 -> 64 ;
65 [label="gini = 0.0\nsamples = 48\nvalue = [74, 0, 0, 0]"] ;
64 -> 65 ;
66 [label="X[22] <= 1.73\ngini = 0.408\nsamples = 20\nvalue = [20, 0, 8, 0]"] ;
64 -> 66 ;
67 [label="X[3] <= 1.82\ngini = 0.172\nsamples = 16\nvalue = [19, 0, 2, 0]"] ;
66 -> 67 ;
68 [label="gini = 0.0\nsamples = 1\nvalue = [0, 0, 1, 0]"] ;
67 -> 68 ;
69 [label="X[2] <= 1.669\ngini = 0.095\nsamples = 15\nvalue = [19, 0, 1, 0]"] ;
67 -> 69 ;
70 [label="gini = 0.0\nsamples = 1\nvalue = [0, 0, 1, 0]"] ;
69 -> 70 ;
71 [label="gini = 0.0\nsamples = 14\nvalue = [19, 0, 0, 0]"] ;
69 -> 71 ;
72 [label="X[3] <= 2.317\ngini = 0.245\nsamples = 4\nvalue = [1, 0, 6, 0]"] ;
66 -> 72 ;
73 [label="gini = 0.0\nsamples = 1\nvalue = [1, 0, 0, 0]"] ;
72 -> 73 ;
74 [label="gini = 0.0\nsamples = 3\nvalue = [0, 0, 6, 0]"] ;
72 -> 74 ;
75 [label="X[18] <= 0.745\ngini = 0.514\nsamples = 464\nvalue = [313, 386, 7, 7]"] ;
43 -> 75 ;
76 [label="X[16] <= 1.185\ngini = 0.492\nsamples = 315\nvalue = [282, 186, 0, 6]"] ;
75 -> 76 ;
77 [label="X[22] <= 1.015\ngini = 0.512\nsamples = 267\nvalue = [213, 185, 0, 6]"] ;
76 -> 77 ;
78 [label="X[12] <= 1.021\ngini = 0.369\nsamples = 97\nvalue = [121, 39, 0, 0]"] ;
77 -> 78 ;
79 [label="gini = 0.0\nsamples = 13\nvalue = [0, 19, 0, 0]"] ;
78 -> 79 ;
80 [label="X[13] <= 1.026\ngini = 0.243\nsamples = 84\nvalue = [121, 20, 0, 0]"] ;
78 -> 80 ;
81 [label="X[5] <= 4.891\ngini = 0.1\nsamples = 10\nvalue = [1, 18, 0, 0]"] ;
80 -> 81 ;
82 [label="gini = 0.0\nsamples = 8\nvalue = [0, 16, 0, 0]"] ;
81 -> 82 ;
83 [label="X[15] <= 0.9\ngini = 0.444\nsamples = 2\nvalue = [1, 2, 0, 0]"] ;
81 -> 83 ;
84 [label="gini = 0.0\nsamples = 1\nvalue = [0, 2, 0, 0]"] ;
83 -> 84 ;
85 [label="gini = 0.0\nsamples = 1\nvalue = [1, 0, 0, 0]"] ;
83 -> 85 ;
86 [label="X[19] <= 0.569\ngini = 0.032\nsamples = 74\nvalue = [120, 2, 0, 0]"] ;
80 -> 86 ;
87 [label="X[14] <= 0.845\ngini = 0.081\nsamples = 30\nvalue = [45, 2, 0, 0]"] ;
86 -> 87 ;
88 [label="gini = 0.0\nsamples = 2\nvalue = [0, 2, 0, 0]"] ;
87 -> 88 ;
89 [label="gini = 0.0\nsamples = 28\nvalue = [45, 0, 0, 0]"] ;
87 -> 89 ;
90 [label="gini = 0.0\nsamples = 44\nvalue = [75, 0, 0, 0]"] ;
86 -> 90 ;
91 [label="X[10] <= 0.904\ngini = 0.499\nsamples = 170\nvalue = [92, 146, 0, 6]"] ;
77 -> 91 ;
92 [label="X[11] <= 0.9\ngini = 0.061\nsamples = 46\nvalue = [2, 62, 0, 0]"] ;
91 -> 92 ;
93 [label="gini = 0.0\nsamples = 41\nvalue = [0, 55, 0, 0]"] ;
92 -> 93 ;
94 [label="X[23] <= 1.36\ngini = 0.346\nsamples = 5\nvalue = [2, 7, 0, 0]"] ;
92 -> 94 ;
95 [label="X[20] <= 1.396\ngini = 0.5\nsamples = 3\nvalue = [2, 2, 0, 0]"] ;
94 -> 95 ;
96 [label="gini = 0.0\nsamples = 2\nvalue = [0, 2, 0, 0]"] ;
95 -> 96 ;
97 [label="gini = 0.0\nsamples = 1\nvalue = [2, 0, 0, 0]"] ;
95 -> 97 ;
98 [label="gini = 0.0\nsamples = 2\nvalue = [0, 5, 0, 0]"] ;
94 -> 98 ;
99 [label="X[5] <= 3.253\ngini = 0.531\nsamples = 124\nvalue = [90, 84, 0, 6]"] ;
91 -> 99 ;
100 [label="X[14] <= 0.951\ngini = 0.503\nsamples = 74\nvalue = [68, 37, 0, 5]"] ;
99 -> 100 ;
101 [label="gini = 0.0\nsamples = 17\nvalue = [0, 21, 0, 0]"] ;
100 -> 101 ;
102 [label="X[2] <= 2.941\ngini = 0.381\nsamples = 57\nvalue = [68, 16, 0, 5]"] ;
100 -> 102 ;
103 [label="X[11] <= 0.902\ngini = 0.314\nsamples = 51\nvalue = [67, 10, 0, 5]"] ;
102 -> 103 ;
104 [label="gini = 0.0\nsamples = 4\nvalue = [0, 4, 0, 0]"] ;
103 -> 104 ;
105 [label="X[15] <= 0.577\ngini = 0.252\nsamples = 47\nvalue = [67, 6, 0, 5]"] ;
103 -> 105 ;
106 [label="X[16] <= 0.503\ngini = 0.444\nsamples = 6\nvalue = [10, 0, 0, 5]"] ;
105 -> 106 ;
107 [label="gini = 0.0\nsamples = 2\nvalue = [0, 0, 0, 5]"] ;
106 -> 107 ;
108 [label="gini = 0.0\nsamples = 4\nvalue = [10, 0, 0, 0]"] ;
106 -> 108 ;
109 [label="X[16] <= 1.024\ngini = 0.172\nsamples = 41\nvalue = [57, 6, 0, 0]"] ;
105 -> 109 ;
110 [label="X[13] <= 0.9\ngini = 0.037\nsamples = 33\nvalue = [52, 1, 0, 0]"] ;
109 -> 110 ;
111 [label="gini = 0.0\nsamples = 1\nvalue = [0, 1, 0, 0]"] ;
110 -> 111 ;
112 [label="gini = 0.0\nsamples = 32\nvalue = [52, 0, 0, 0]"] ;
110 -> 112 ;
113 [label="X[11] <= 1.321\ngini = 0.5\nsamples = 8\nvalue = [5, 5, 0, 0]"] ;
109 -> 113 ;
114 [label="gini = 0.0\nsamples = 2\nvalue = [2, 0, 0, 0]"] ;
113 -> 114 ;
115 [label="X[8] <= 3.803\ngini = 0.469\nsamples = 6\nvalue = [3, 5, 0, 0]"] ;
113 -> 115 ;
116 [label="gini = 0.0\nsamples = 4\nvalue = [0, 5, 0, 0]"] ;
115 -> 116 ;
117 [label="gini = 0.0\nsamples = 2\nvalue = [3, 0, 0, 0]"] ;
115 -> 117 ;
118 [label="X[0] <= 3.567\ngini = 0.245\nsamples = 6\nvalue = [1, 6, 0, 0]"] ;
102 -> 118 ;
119 [label="gini = 0.0\nsamples = 5\nvalue = [0, 6, 0, 0]"] ;
118 -> 119 ;
120 [label="gini = 0.0\nsamples = 1\nvalue = [1, 0, 0, 0]"] ;
118 -> 120 ;
121 [label="X[7] <= 2.099\ngini = 0.45\nsamples = 50\nvalue = [22, 47, 0, 1]"] ;
99 -> 121 ;
122 [label="X[9] <= 1.642\ngini = 0.469\nsamples = 18\nvalue = [16, 7, 0, 1]"] ;
121 -> 122 ;
123 [label="X[10] <= 1.441\ngini = 0.219\nsamples = 7\nvalue = [1, 7, 0, 0]"] ;
122 -> 123 ;
124 [label="X[19] <= 0.585\ngini = 0.375\nsamples = 4\nvalue = [1, 3, 0, 0]"] ;
123 -> 124 ;
125 [label="gini = 0.0\nsamples = 3\nvalue = [0, 3, 0, 0]"] ;
124 -> 125 ;
126 [label="gini = 0.0\nsamples = 1\nvalue = [1, 0, 0, 0]"] ;
124 -> 126 ;
127 [label="gini = 0.0\nsamples = 3\nvalue = [0, 4, 0, 0]"] ;
123 -> 127 ;
128 [label="X[18] <= 0.52\ngini = 0.117\nsamples = 11\nvalue = [15, 0, 0, 1]"] ;
122 -> 128 ;
129 [label="X[6] <= 1.831\ngini = 0.375\nsamples = 3\nvalue = [3, 0, 0, 1]"] ;
128 -> 129 ;
130 [label="gini = 0.0\nsamples = 2\nvalue = [3, 0, 0, 0]"] ;
129 -> 130 ;
131 [label="gini = 0.0\nsamples = 1\nvalue = [0, 0, 0, 1]"] ;
129 -> 131 ;
132 [label="gini = 0.0\nsamples = 8\nvalue = [12, 0, 0, 0]"] ;
128 -> 132 ;
133 [label="X[10] <= 1.332\ngini = 0.227\nsamples = 32\nvalue = [6, 40, 0, 0]"] ;
121 -> 133 ;
134 [label="gini = 0.0\nsamples = 3\nvalue = [3, 0, 0, 0]"] ;
133 -> 134 ;
135 [label="X[18] <= 0.741\ngini = 0.13\nsamples = 29\nvalue = [3, 40, 0, 0]"] ;
133 -> 135 ;
136 [label="X[14] <= 3.019\ngini = 0.048\nsamples = 27\nvalue = [1, 40, 0, 0]"] ;
135 -> 136 ;
137 [label="gini = 0.0\nsamples = 26\nvalue = [0, 40, 0, 0]"] ;
136 -> 137 ;
138 [label="gini = 0.0\nsamples = 1\nvalue = [1, 0, 0, 0]"] ;
136 -> 138 ;
139 [label="gini = 0.0\nsamples = 2\nvalue = [2, 0, 0, 0]"] ;
135 -> 139 ;
140 [label="X[9] <= 1.685\ngini = 0.028\nsamples = 48\nvalue = [69, 1, 0, 0]"] ;
76 -> 140 ;
141 [label="X[16] <= 1.363\ngini = 0.18\nsamples = 7\nvalue = [9, 1, 0, 0]"] ;
140 -> 141 ;
142 [label="gini = 0.0\nsamples = 6\nvalue = [9, 0, 0, 0]"] ;
141 -> 142 ;
143 [label="gini = 0.0\nsamples = 1\nvalue = [0, 1, 0, 0]"] ;
141 -> 143 ;
144 [label="gini = 0.0\nsamples = 41\nvalue = [60, 0, 0, 0]"] ;
140 -> 144 ;
145 [label="X[16] <= 0.898\ngini = 0.282\nsamples = 149\nvalue = [31, 200, 7, 1]"] ;
75 -> 145 ;
146 [label="X[21] <= 0.697\ngini = 0.128\nsamples = 107\nvalue = [12, 162, 0, 0]"] ;
145 -> 146 ;
147 [label="X[17] <= 0.759\ngini = 0.426\nsamples = 17\nvalue = [8, 18, 0, 0]"] ;
146 -> 147 ;
148 [label="gini = 0.0\nsamples = 6\nvalue = [8, 0, 0, 0]"] ;
147 -> 148 ;
149 [label="gini = 0.0\nsamples = 11\nvalue = [0, 18, 0, 0]"] ;
147 -> 149 ;
150 [label="X[16] <= 0.871\ngini = 0.053\nsamples = 90\nvalue = [4, 144, 0, 0]"] ;
146 -> 150 ;
151 [label="gini = 0.0\nsamples = 74\nvalue = [0, 119, 0, 0]"] ;
150 -> 151 ;
152 [label="X[16] <= 0.874\ngini = 0.238\nsamples = 16\nvalue = [4, 25, 0, 0]"] ;
150 -> 152 ;
153 [label="gini = 0.0\nsamples = 2\nvalue = [4, 0, 0, 0]"] ;
152 -> 153 ;
154 [label="gini = 0.0\nsamples = 14\nvalue = [0, 25, 0, 0]"] ;
152 -> 154 ;
155 [label="X[10] <= 1.903\ngini = 0.561\nsamples = 42\nvalue = [19, 38, 7, 1]"] ;
145 -> 155 ;
156 [label="X[14] <= 0.939\ngini = 0.204\nsamples = 18\nvalue = [0, 23, 3, 0]"] ;
155 -> 156 ;
157 [label="gini = 0.0\nsamples = 16\nvalue = [0, 23, 0, 0]"] ;
156 -> 157 ;
158 [label="gini = 0.0\nsamples = 2\nvalue = [0, 0, 3, 0]"] ;
156 -> 158 ;
159 [label="X[14] <= 0.905\ngini = 0.604\nsamples = 24\nvalue = [19, 15, 4, 1]"] ;
155 -> 159 ;
160 [label="gini = 0.0\nsamples = 9\nvalue = [0, 15, 0, 0]"] ;
159 -> 160 ;
161 [label="X[8] <= 2.61\ngini = 0.344\nsamples = 15\nvalue = [19, 0, 4, 1]"] ;
159 -> 161 ;
162 [label="X[10] <= 1.992\ngini = 0.32\nsamples = 3\nvalue = [0, 0, 4, 1]"] ;
161 -> 162 ;
163 [label="gini = 0.0\nsamples = 2\nvalue = [0, 0, 4, 0]"] ;
162 -> 163 ;
164 [label="gini = 0.0\nsamples = 1\nvalue = [0, 0, 0, 1]"] ;
162 -> 164 ;
165 [label="gini = 0.0\nsamples = 12\nvalue = [19, 0, 0, 0]"] ;
161 -> 165 ;
166 [label="X[23] <= 2.53\ngini = 0.609\nsamples = 511\nvalue = [156, 422, 207, 7]"] ;
0 -> 166 [labeldistance=2.5, labelangle=-45, headlabel="False"] ;
167 [label="X[4] <= 2.286\ngini = 0.651\nsamples = 224\nvalue = [100, 80, 156, 6]"] ;
166 -> 167 ;
168 [label="X[19] <= 0.901\ngini = 0.52\nsamples = 161\nvalue = [69, 22, 152, 0]"] ;
167 -> 168 ;
169 [label="X[2] <= 2.377\ngini = 0.338\nsamples = 33\nvalue = [40, 11, 0, 0]"] ;
168 -> 169 ;
170 [label="gini = 0.0\nsamples = 23\nvalue = [36, 0, 0, 0]"] ;
169 -> 170 ;
171 [label="X[12] <= 1.317\ngini = 0.391\nsamples = 10\nvalue = [4, 11, 0, 0]"] ;
169 -> 171 ;
172 [label="gini = 0.0\nsamples = 7\nvalue = [0, 11, 0, 0]"] ;
171 -> 172 ;
173 [label="gini = 0.0\nsamples = 3\nvalue = [4, 0, 0, 0]"] ;
171 -> 173 ;
174 [label="X[15] <= 1.077\ngini = 0.347\nsamples = 128\nvalue = [29, 11, 152, 0]"] ;
168 -> 174 ;
175 [label="X[2] <= 2.397\ngini = 0.58\nsamples = 13\nvalue = [13, 8, 3, 0]"] ;
174 -> 175 ;
176 [label="X[7] <= 1.28\ngini = 0.438\nsamples = 9\nvalue = [13, 2, 3, 0]"] ;
175 -> 176 ;
177 [label="X[11] <= 0.931\ngini = 0.48\nsamples = 2\nvalue = [0, 2, 3, 0]"] ;
176 -> 177 ;
178 [label="gini = 0.0\nsamples = 1\nvalue = [0, 2, 0, 0]"] ;
177 -> 178 ;
179 [label="gini = 0.0\nsamples = 1\nvalue = [0, 0, 3, 0]"] ;
177 -> 179 ;
180 [label="gini = 0.0\nsamples = 7\nvalue = [13, 0, 0, 0]"] ;
176 -> 180 ;
181 [label="gini = 0.0\nsamples = 4\nvalue = [0, 6, 0, 0]"] ;
175 -> 181 ;
182 [label="X[18] <= 0.962\ngini = 0.204\nsamples = 115\nvalue = [16, 3, 149, 0]"] ;
174 -> 182 ;
183 [label="X[9] <= 2.295\ngini = 0.266\nsamples = 10\nvalue = [16, 3, 0, 0]"] ;
182 -> 183 ;
184 [label="gini = 0.0\nsamples = 8\nvalue = [16, 0, 0, 0]"] ;
183 -> 184 ;
185 [label="gini = 0.0\nsamples = 2\nvalue = [0, 3, 0, 0]"] ;
183 -> 185 ;
186 [label="gini = 0.0\nsamples = 105\nvalue = [0, 0, 149, 0]"] ;
182 -> 186 ;
187 [label="X[20] <= 0.537\ngini = 0.553\nsamples = 63\nvalue = [31, 58, 4, 6]"] ;
167 -> 187 ;
188 [label="gini = 0.0\nsamples = 4\nvalue = [0, 0, 0, 6]"] ;
187 -> 188 ;
189 [label="X[8] <= 1.715\ngini = 0.498\nsamples = 59\nvalue = [31, 58, 4, 0]"] ;
187 -> 189 ;
190 [label="X[7] <= 1.568\ngini = 0.559\nsamples = 22\nvalue = [16, 9, 3, 0]"] ;
189 -> 190 ;
191 [label="X[17] <= 0.881\ngini = 0.43\nsamples = 9\nvalue = [1, 8, 2, 0]"] ;
190 -> 191 ;
192 [label="X[2] <= 1.958\ngini = 0.198\nsamples = 7\nvalue = [1, 8, 0, 0]"] ;
191 -> 192 ;
193 [label="gini = 0.0\nsamples = 1\nvalue = [1, 0, 0, 0]"] ;
192 -> 193 ;
194 [label="gini = 0.0\nsamples = 6\nvalue = [0, 8, 0, 0]"] ;
192 -> 194 ;
195 [label="gini = 0.0\nsamples = 2\nvalue = [0, 0, 2, 0]"] ;
191 -> 195 ;
196 [label="X[5] <= 1.611\ngini = 0.215\nsamples = 13\nvalue = [15, 1, 1, 0]"] ;
190 -> 196 ;
197 [label="gini = 0.0\nsamples = 1\nvalue = [0, 1, 0, 0]"] ;
196 -> 197 ;
198 [label="X[20] <= 1.642\ngini = 0.117\nsamples = 12\nvalue = [15, 0, 1, 0]"] ;
196 -> 198 ;
199 [label="gini = 0.0\nsamples = 11\nvalue = [15, 0, 0, 0]"] ;
198 -> 199 ;
200 [label="gini = 0.0\nsamples = 1\nvalue = [0, 0, 1, 0]"] ;
198 -> 200 ;
201 [label="X[0] <= 0.862\ngini = 0.378\nsamples = 37\nvalue = [15, 49, 1, 0]"] ;
189 -> 201 ;
202 [label="gini = 0.0\nsamples = 5\nvalue = [6, 0, 0, 0]"] ;
201 -> 202 ;
203 [label="X[3] <= 2.043\ngini = 0.287\nsamples = 32\nvalue = [9, 49, 1, 0]"] ;
201 -> 203 ;
204 [label="X[5] <= 3.905\ngini = 0.469\nsamples = 3\nvalue = [5, 3, 0, 0]"] ;
203 -> 204 ;
205 [label="gini = 0.0\nsamples = 2\nvalue = [5, 0, 0, 0]"] ;
204 -> 205 ;
206 [label="gini = 0.0\nsamples = 1\nvalue = [0, 3, 0, 0]"] ;
204 -> 206 ;
207 [label="X[4] <= 3.999\ngini = 0.18\nsamples = 29\nvalue = [4, 46, 1, 0]"] ;
203 -> 207 ;
208 [label="X[11] <= 1.33\ngini = 0.375\nsamples = 11\nvalue = [4, 12, 0, 0]"] ;
207 -> 208 ;
209 [label="gini = 0.0\nsamples = 8\nvalue = [0, 11, 0, 0]"] ;
208 -> 209 ;
210 [label="X[2] <= 2.228\ngini = 0.32\nsamples = 3\nvalue = [4, 1, 0, 0]"] ;
208 -> 210 ;
211 [label="gini = 0.0\nsamples = 1\nvalue = [0, 1, 0, 0]"] ;
210 -> 211 ;
212 [label="gini = 0.0\nsamples = 2\nvalue = [4, 0, 0, 0]"] ;
210 -> 212 ;
213 [label="X[6] <= 3.752\ngini = 0.056\nsamples = 18\nvalue = [0, 34, 1, 0]"] ;
207 -> 213 ;
214 [label="gini = 0.0\nsamples = 16\nvalue = [0, 33, 0, 0]"] ;
213 -> 214 ;
215 [label="X[8] <= 2.692\ngini = 0.5\nsamples = 2\nvalue = [0, 1, 1, 0]"] ;
213 -> 215 ;
216 [label="gini = 0.0\nsamples = 1\nvalue = [0, 0, 1, 0]"] ;
215 -> 216 ;
217 [label="gini = 0.0\nsamples = 1\nvalue = [0, 1, 0, 0]"] ;
215 -> 217 ;
218 [label="X[0] <= 2.414\ngini = 0.394\nsamples = 287\nvalue = [56, 342, 51, 1]"] ;
166 -> 218 ;
219 [label="X[14] <= 0.922\ngini = 0.55\nsamples = 169\nvalue = [48, 156, 51, 0]"] ;
218 -> 219 ;
220 [label="gini = 0.0\nsamples = 90\nvalue = [0, 126, 0, 0]"] ;
219 -> 220 ;
221 [label="X[18] <= 0.976\ngini = 0.651\nsamples = 79\nvalue = [48, 30, 51, 0]"] ;
219 -> 221 ;
222 [label="X[18] <= 0.582\ngini = 0.366\nsamples = 36\nvalue = [41, 13, 0, 0]"] ;
221 -> 222 ;
223 [label="gini = 0.0\nsamples = 7\nvalue = [0, 13, 0, 0]"] ;
222 -> 223 ;
224 [label="gini = 0.0\nsamples = 29\nvalue = [41, 0, 0, 0]"] ;
222 -> 224 ;
225 [label="X[1] <= 1.938\ngini = 0.478\nsamples = 43\nvalue = [7, 17, 51, 0]"] ;
221 -> 225 ;
226 [label="gini = 0.0\nsamples = 8\nvalue = [0, 13, 0, 0]"] ;
225 -> 226 ;
227 [label="X[22] <= 2.125\ngini = 0.306\nsamples = 35\nvalue = [7, 4, 51, 0]"] ;
225 -> 227 ;
228 [label="gini = 0.0\nsamples = 3\nvalue = [5, 0, 0, 0]"] ;
227 -> 228 ;
229 [label="X[11] <= 0.957\ngini = 0.193\nsamples = 32\nvalue = [2, 4, 51, 0]"] ;
227 -> 229 ;
230 [label="gini = 0.0\nsamples = 2\nvalue = [0, 4, 0, 0]"] ;
229 -> 230 ;
231 [label="X[7] <= 1.133\ngini = 0.073\nsamples = 30\nvalue = [2, 0, 51, 0]"] ;
229 -> 231 ;
232 [label="gini = 0.0\nsamples = 1\nvalue = [1, 0, 0, 0]"] ;
231 -> 232 ;
233 [label="X[17] <= 0.901\ngini = 0.038\nsamples = 29\nvalue = [1, 0, 51, 0]"] ;
231 -> 233 ;
234 [label="gini = 0.0\nsamples = 1\nvalue = [1, 0, 0, 0]"] ;
233 -> 234 ;
235 [label="gini = 0.0\nsamples = 28\nvalue = [0, 0, 51, 0]"] ;
233 -> 235 ;
236 [label="X[4] <= 2.642\ngini = 0.088\nsamples = 118\nvalue = [8, 186, 0, 1]"] ;
218 -> 236 ;
237 [label="X[10] <= 2.184\ngini = 0.023\nsamples = 106\nvalue = [2, 172, 0, 0]"] ;
236 -> 237 ;
238 [label="gini = 0.0\nsamples = 101\nvalue = [0, 164, 0, 0]"] ;
237 -> 238 ;
239 [label="X[9] <= 2.131\ngini = 0.32\nsamples = 5\nvalue = [2, 8, 0, 0]"] ;
237 -> 239 ;
240 [label="gini = 0.0\nsamples = 4\nvalue = [0, 8, 0, 0]"] ;
239 -> 240 ;
241 [label="gini = 0.0\nsamples = 1\nvalue = [2, 0, 0, 0]"] ;
239 -> 241 ;
242 [label="X[0] <= 3.984\ngini = 0.472\nsamples = 12\nvalue = [6, 14, 0, 1]"] ;
236 -> 242 ;
243 [label="gini = 0.0\nsamples = 8\nvalue = [0, 14, 0, 0]"] ;
242 -> 243 ;
244 [label="X[11] <= 2.569\ngini = 0.245\nsamples = 4\nvalue = [6, 0, 0, 1]"] ;
242 -> 244 ;
245 [label="gini = 0.0\nsamples = 3\nvalue = [6, 0, 0, 0]"] ;
244 -> 245 ;
246 [label="gini = 0.0\nsamples = 1\nvalue = [0, 0, 0, 1]"] ;
244 -> 246 ;
}